tree
version=v4
num_class=1
num_tree_per_iteration=1
label_index=0
max_feature_idx=39
objective=binary sigmoid:1
feature_names=bow__115 bow__125 bow__125i bow__150 bow__155 bow__175 bow__barako bow__black bow__click bow__es bow__fazzio bow__fi bow__honda bow__i bow__kawasaki bow__mio bow__raider bow__repo bow__smash bow__suzuki bow__tmx bow__yamaha cat__housing_status cat__marital_status cat__education cat__spouse_education num__loan_amount num__loan_downpayment num__loan_term num__monthly_amortization num__age num__n_children num__n_dependents num__n_dependents_corrected num__gross_income num__employment_income num__business_income num__spouse_income num__loan_downpayment_ratio num__amort_income_ratio
feature_infos=[0:1] [0:1] [0:1] [0:1] [0:1] [0:1] [0:1] [0:1] [0:1] [0:1] [0:1] [0:1] [0:1] [0:1] [0:1] [0:1] [0:1] [0:1] [0:1] [0:1] [0:1] [0:1] [-1:2] [-1:3] [-1:2] [-1:2] [3109:158200] [2000:300001] [6:36] [1917:32969] [20:68] [0:54] [0:6] [0:5] [5000:300000] [0:157500] [0:50000] [0:70000] [0.034782608695652174:7.0457267667159869] [0.028066666666666667:0.95999999999999996]
tree_sizes=1438 2481 2399 1779 1853 1351 844 551 548 551 349

Tree=0
num_leaves=13
num_cat=0
split_feature=28 19 17 39 34 35 8 39 35 22 30 23
split_gain=35.3127 25.2102 24.8447 18.8203 23.0264 14.0516 11.651 8.45957 7.14245 3.72032 1.99807 0.269002
threshold=27.000000000000004 1.0000000180025095e-35 1.0000000180025095e-35 0.17723439192285032 35195.000000000007 17810.540000000005 1.0000000180025095e-35 0.16123286758122971 12250.000000000002 1.5000000000000002 43.500000000000007 1.5000000000000002
decision_type=10 2 2 8 10 10 2 8 8 2 10 2
left_child=-1 2 3 4 5 7 -4 -2 -3 -7 11 -10
right_child=1 8 6 -5 -6 9 -8 -9 10 -11 -12 -13
leaf_value=-2.4563269836243498 -2.4536131034947952 -0.076409796831661936 -0.36857955151644561 -2.4563269836243502 -2.4554395871029393 2.6476627117306699 2.9750137836018853 1.6447259997261972 2.4475288409983325 0.85328370343348747 1.6563966393443414 2.9750137836018853
leaf_weight=4.0404039621353176 1.469237804412842 1.3085399270057685 1.4921946525573719 4.0404039621353158 2.5711661577224731 3.0532598495483398 3.4435261487960815 0.75757575035095204 1.9054177999496467 1.8824609518051145 2.2727272510528564 3.4435261487960815
leaf_count=22 8 5 6 22 14 6 6 2 4 6 6 6
internal_value=-1.13943 0.703776 0.0442385 -0.645187 0.106883 1.02696 1.96588 -1.05636 2.08421 1.96588 2.45426 2.79048
internal_weight=0 27.64 18.7098 13.7741 9.7337 7.16253 4.93572 2.22681 8.93021 4.93572 7.62167 5.34894
internal_count=113 91 70 58 36 22 12 10 21 12 16 10
is_linear=0
shrinkage=1


Tree=1
num_leaves=23
num_cat=0
split_feature=11 27 27 33 30 30 39 31 22 22 31 13 19 39 3 22 39 37 39 26 23 33
split_gain=10.6171 4.56889 4.24 4.03148 3.70739 2.66206 2.14768 3.26691 3.63796 2.05273 1.54668 1.43348 1.37247 1.17333 1.12612 0.935749 0.826039 0.675208 0.34576 0.26062 0.204987 0.149998
threshold=1.0000000180025095e-35 2750.0000000000005 3308.0000000000005 2.5000000000000004 23.500000000000004 42.500000000000007 0.10615289473684213 1.5000000000000002 1.5000000000000002 -1.0000000180025095e-35 6.5000000000000009 1.0000000180025095e-35 1.0000000180025095e-35 0.18728709406494962 1.0000000180025095e-35 1.5000000000000002 0.12882783018867927 10250.000000000002 0.095500000000000015 78475.000000000015 1.5000000000000002 3.5000000000000004
decision_type=2 8 8 2 8 10 8 8 2 2 8 2 2 10 2 2 8 8 8 10 2 2
left_child=1 -1 5 4 -4 14 12 8 13 -9 11 21 18 20 17 19 -17 -3 -6 -11 -8 -5
right_child=-2 2 3 10 6 -7 7 9 -10 15 -12 -13 -14 -15 -16 16 -18 -19 -20 -21 -22 -23
leaf_value=-2.6790171866788763 -3.91822296743582 0.24023940596375523 1.1457332773561615 -1.0745086905347931 -1.0774840721111429 1.7169717950033205 0.37943970894857187 -3.2319861381977701 -2.4012006899343712 -1.070441054250304 1.7970731686531936 1.16563780961332 1.1442800972943379 -1.0744007616985285 1.0536314604754373 -2.6269676746881689 -1.0766228823667672 -1.0577740833828653 0.14110284073786564 0.14174632897853745 1.1459906588692852 -0.23208877171182143
leaf_weight=0.7021554633975019 0.79988606274128038 0.81930686533451003 0.92041415721177777 0.50967387109994999 0.72794412821531351 1.7407546341419218 0.9061233922839167 0.91381708905100634 0.71011766046285618 0.36375293880701298 0.85290486365556706 0.72746974974870682 0.64952379465103138 0.50917799025773991 0.80660954117774952 0.74136760085821141 0.65465741604566585 0.77344388514757167 0.33864458650350582 0.3384782075881958 0.56826576590538025 0.3628421276807785
leaf_count=5 6 5 3 7 10 4 7 7 6 5 2 2 2 7 5 4 9 5 3 3 2 4
internal_value=0 -0.197794 -0.0803251 -0.409889 -0.740803 0.778482 -0.975345 -1.2698 -0.469327 -1.98378 0.714802 0.134246 0.00445412 0.226389 0.0955426 -1.43406 -1.90609 -0.391356 -0.691675 -0.489149 0.677632 -0.727351
internal_weight=0 15.6374 14.9353 10.7952 8.34228 4.14011 7.42187 5.70576 2.69368 3.01207 2.45289 1.59999 1.71611 1.98357 2.39936 2.09826 1.39603 1.59275 1.06659 0.702231 1.47439 0.872516
internal_count=113 107 102 83 68 19 65 50 22 28 15 13 15 16 15 21 13 10 13 8 9 11
is_linear=0
shrinkage=0.998825


Tree=2
num_leaves=22
num_cat=0
split_feature=26 26 6 20 24 39 39 31 26 39 39 17 30 25 30 39 17 34 39 26 35
split_gain=54.2697 56.8506 51.9567 21.1268 21.0222 5.90996 7.82809 3.23727 1.94194 0.575125 0.574182 1.9199 0.486717 0.461605 0.282384 0.077233 0.0570963 0.0471181 0.0149429 0.00263043 0.00162591
threshold=76650.000000000015 78995.000000000015 1.0000000180025095e-35 1.0000000180025095e-35 1.5000000000000002 0.10570412457912459 0.097613333333333344 5.5000000000000009 61350.000000000007 0.11149464285714288 0.17232573360423678 1.0000000180025095e-35 27.500000000000004 1.5000000000000002 50.500000000000007 0.14378483447098475 1.0000000180025095e-35 28650.965000000004 0.18429812957441044 18500.000000000004 27304.000000000004
decision_type=10 10 2 2 2 10 10 8 10 10 10 2 10 2 10 10 2 10 10 10 10
left_child=3 -2 7 5 -4 6 14 12 9 -7 15 18 -3 -14 17 -10 19 -1 -12 -11 -19
right_child=1 2 4 -5 -6 8 -8 -9 10 16 11 -13 13 -15 -16 -17 -18 20 -20 -21 -22
leaf_value=-1.8420285726667309 13.54508572195472 1.0186000996063411 13.736132390458074 6.3631912363809082 4.3255221462454436 0.35417879266283381 -6.9820375119475644 -3.7713106540595538 0.65052233858240971 -1.2600606759895183 -1.5239979035009601 1.2084548489063607 -1.1466695784318515 0.56814997873662287 -0.2651948963018711 1.1396963271837597 -1.7572400477700618 -1.1456820095474642 -1.1245561293869428 -1.0460404660257314 -1.3959772078429566
leaf_weight=0.24897336959838845 0.63470377586782012 0.22656997293233883 0.416828904300928 0.46393776312470425 0.55571311095263809 0.25234928727149997 0.2888724380172788 0.35154889896512043 0.58328549703583144 0.45759577723219969 0.22981849312782265 0.62733903527259827 0.52312798518687487 0.21922605927102268 0.26472965255379677 0.79799088090658188 0.24668051302433014 0.30712944455444813 0.36082428321242332 0.34818599082063884 0.27989752031862736
leaf_count=1 7 2 5 6 4 2 5 3 6 5 1 2 8 5 5 3 1 6 8 13 3
internal_value=0 5.21438 2.88511 -0.0644358 8.40627 -0.632979 -2.39811 -1.19692 -0.00254313 -0.994682 0.496415 -0.00390369 -0.248965 -0.639868 -1.17016 0.93608 -1.31824 -1.4536 -1.29095 -1.17429 -1.27532
internal_weight=0 2.92772 2.29301 5.75761 0.972542 5.29367 1.3896 1.32047 3.90407 1.30481 2.59926 1.21798 0.968924 0.742354 1.10073 1.38128 1.05246 0.836 0.590643 0.805782 0.587027
internal_count=101 34 27 67 9 61 20 18 41 21 20 11 15 13 15 9 19 10 9 18 9
is_linear=0
shrinkage=0.998825


Tree=3
num_leaves=16
num_cat=0
split_feature=8 30 20 30 26 39 6 35 22 32 26 6 34 30 30
split_gain=37.2346 78.6789 16.7162 15.9366 23.2195 5.02962 2.46894 1.88761 0.627912 0.789148 0.237311 0.329515 0.135381 0.30554 0.0066429
threshold=1.0000000180025095e-35 28.500000000000004 1.0000000180025095e-35 53.500000000000007 73650.000000000015 0.28015238095238099 1.0000000180025095e-35 98139.025000000009 -1.0000000180025095e-35 3.5000000000000004 74900.000000000015 1.0000000180025095e-35 19259.500000000004 28.500000000000004 44.500000000000007
decision_type=2 10 2 10 8 10 2 10 2 2 8 2 10 10 10
left_child=2 -2 3 5 -5 7 -7 8 10 12 14 -12 13 -10 -1
right_child=1 -3 -4 4 -6 6 -8 -9 9 -11 11 -13 -14 -15 -16
leaf_value=0.77670141346549126 0.855999472022139 -32.469921807070243 -7.3323303847378725 -1.069777955439412 -20.592509691540812 -1.004297201401759 -7.1966716719961248 -3.133690582291774 0.82985833460380309 0.56905821567913428 -1.0158588020331081 1.0130057891235371 -1.0908570953428436 -1.0493022888343491 1.0538401706507134
leaf_weight=0.22586349950143025 0.15867624704333128 0.12232151816397163 0.52952726956573304 0.1518122386332833 0.097210666721366579 0.1072171953273936 0.16229486210795585 0.21458128094673146 0.13276478927582569 0.54015561519190658 0.1747529074200429 0.13913637399673462 0.86132883842219599 0.22826162353157997 0.36876471340656281
leaf_count=7 5 9 7 6 7 7 2 1 4 7 8 1 19 9 2
internal_value=0 -13.9512 -2.13698 -1.31969 -8.9348 -0.706064 -4.79357 -0.31701 -0.0855409 -0.432915 0.587101 -0.114829 -0.876176 -0.356443 0.955596
internal_weight=0 0.280998 3.93367 3.40414 0.249023 3.15512 0.269512 2.88561 2.67103 1.76251 0.908517 0.313889 1.22236 0.361026 0.594628
internal_count=101 14 87 80 13 67 9 58 57 39 18 9 32 13 9
is_linear=0
shrinkage=0.998825


Tree=4
num_leaves=17
num_cat=0
split_feature=27 39 23 34 34 19 26 21 39 37 26 26 26 24 39 34
split_gain=484.01 1853.33 188.628 363.645 203.378 588.345 38.2297 30.1258 8.47684 7.37094 15.8743 5.38697 2.9554 1.40284 0.153872 0.0636174
threshold=11500.000000000002 0.12303020890832662 2.5000000000000004 20028.890000000003 37585.000000000007 1.0000000180025095e-35 71725.000000000015 1.0000000180025095e-35 0.16123286758122971 1.0000000180025095e-35 61350.000000000007 95100.000000000015 77800.000000000015 1.5000000000000002 0.13143518518518521 26000.000000000004
decision_type=8 10 2 8 10 2 8 2 10 8 10 8 8 2 10 10
left_child=2 -2 9 -4 6 -6 7 -5 -8 10 -1 12 13 15 -15 -11
right_child=1 -3 3 4 5 -7 8 -9 -10 11 -12 -13 -14 14 -16 -17
leaf_value=0.80457372112386316 -1.1052125076041004 160.1532513653267 66.332247259330259 23.358188565671089 96.506184388632548 0.41837580596063789 -6.2870703321979331 0.98923111923677709 1.0838102362110718 0.96529364928574168 6.7908630912386103 3.616020083143721 -1.9302119443771786 -1.3400215714784836 -0.17389005207589922 1.3353240550258505
leaf_weight=1.0073990745004264 0.26707717472527304 0.09209480835127315 0.12088398525651069 0.12335551614534468 0.091291787422694726 0.18808343634009361 0.25488289305367484 0.11390187501092441 0.38578193495050073 0.93596345957485194 0.78461729452465068 0.62180382013320912 0.45750160845320831 0.22766427278111212 0.22265861506178908 1.1141786575317381
leaf_count=3 7 18 11 6 11 4 6 2 3 8 6 2 5 5 6 2
internal_value=0 41.8011 4.38596 15.2677 9.68326 32.9108 2.15371 12.8507 -1.87344 1.78547 3.43669 0.955396 0.391172 0.818777 -0.771309 1.16903
internal_weight=0 0.359172 6.64997 1.27818 1.1573 0.279375 0.877922 0.237257 0.640665 5.37179 1.79202 3.57977 2.95797 2.50047 0.450323 2.05014
internal_count=105 25 80 43 32 15 17 8 9 37 9 28 26 21 11 10
is_linear=0
shrinkage=0.998825


Tree=5
num_leaves=12
num_cat=0
split_feature=23 3 31 33 29 29 34 39 34 29 35
split_gain=1313.4 904.397 1774.34 332.482 110.055 265.07 6.1239 5.7007 1.19611 0.271702 0.102665
threshold=2.5000000000000004 1.0000000180025095e-35 3.5000000000000004 4.5000000000000009 3940.5000000000005 4356.0000000000009 24075.000000000004 0.16123286758122971 16256.000000000002 3906.0000000000005 25250.000000000004
decision_type=2 2 8 2 8 10 10 8 8 8 10
left_child=4 2 -2 -4 6 -6 7 -1 -9 10 -8
right_child=1 -3 3 -5 5 -7 9 8 -10 -11 -12
leaf_value=-4.7198846913366328 -219.60618244630416 -8.5453245463604794 -87.007552378508734 -0.10818931636505727 0.99499109707576416 -62.62495183627658 1.2032187170994444 1.0588892893259987 -1.2975269278638937 1.7773752386038502 0.56751269541755756
leaf_weight=0.3775030185352094 0.076884982225500775 0.20406415686011314 0.075449570810062427 0.097106542438268661 0.19882270634479926 0.092435804894194007 0.86623113475523694 0.4414892643005931 0.40977349572052435 0.77055323123931874 0.37720599691965617
leaf_count=6 39 6 12 2 5 10 8 7 5 1 4
internal_value=0 -58.2796 -98.042 -39.4239 -1.44455 -19.8801 0.238086 -1.51567 -0.0763318 1.30913 1.01328
internal_weight=0 0.453505 0.249441 0.172556 3.53401 0.291259 3.24276 1.22877 0.851263 2.01399 1.24344
internal_count=105 59 53 14 46 15 31 18 12 13 12
is_linear=0
shrinkage=0.998825


Tree=6
num_leaves=7
num_cat=0
split_feature=23 38 39 17 38 23
split_gain=9377.73 300.837 194.795 668.921 51.3049 129.618
threshold=2.5000000000000004 0.16703230953330675 0.21515882892934041 1.0000000180025095e-35 0.082873585517730844 1.5000000000000002
decision_type=2 10 10 2 8 2
left_child=1 2 4 -4 5 -1
right_child=-2 -3 3 -5 -6 -7
leaf_value=33.228340306094303 266.85865892177236 -32.581474647162572 103.38228037089853 -5.2923316113091827 -2.0075749370914462 1.0781418563920713
leaf_weight=0.17665866165771094 0.14382834852097648 0.18651399119698919 0.085667477516572776 0.14944099624608498 0.61363486255868349 0.4040632605490504
leaf_count=8 55 12 9 2 6 10
internal_value=0 4.6456 9.59519 35.5751 4.3598 11.0496
internal_weight=0 1.61598 1.42947 0.235108 1.19436 0.580722
internal_count=102 47 35 11 24 18
is_linear=0
shrinkage=0.998825


Tree=7
num_leaves=4
num_cat=0
split_feature=31 27 19
split_gain=4953.97 459.05 44.8118
threshold=1.5000000000000002 6000.0018000000009 1.0000000180025095e-35
decision_type=10 10 2
left_child=1 2 -1
right_child=-2 -3 -4
leaf_value=-21.345047670672837 -205.41840031215088 -62.364053835253436 -1.1254272542662318
leaf_weight=0.14235253892981958 0.17445704860102706 0.19155509769916534 0.42820701003479189
leaf_count=16 62 18 6
internal_value=0 -20.696 -6.30539
internal_weight=0 0.762115 0.57056
internal_count=102 40 22
is_linear=0
shrinkage=0.998825


Tree=8
num_leaves=4
num_cat=0
split_feature=37 26 17
split_gain=1208.51 2450.21 775.171
threshold=16689.000000000004 95750.000000000015 1.0000000180025095e-35
decision_type=8 8 2
left_child=2 -2 -1
right_child=1 -3 -4
leaf_value=-98.682440562494307 212.32261026961956 -41.04386292250539 5.6969136548492392
leaf_weight=0.074448475221050359 0.075420933620180222 0.070024022832512842 0.6787432162091136
leaf_count=35 61 9 4
internal_value=0 92.912 -5.17685
internal_weight=0 0.145445 0.753192
internal_count=109 70 39
is_linear=0
shrinkage=0.998825


Tree=9
num_leaves=4
num_cat=0
split_feature=28 23 36
split_gain=1993.38 681.954 520.668
threshold=27.000000000000004 2.5000000000000004 1.0000000180025095e-35
decision_type=10 2 8
left_child=-1 2 -2
right_child=1 -3 -4
leaf_value=-145.99060853992256 31.268350461258933 -58.846961383807155 -30.102758017076507
leaf_weight=0.13153658730259377 0.30982162766679233 0.24096635865341154 0.2408741788822315
leaf_count=33 23 41 12
internal_value=0 -15.0908 4.39664
internal_weight=0 0.791662 0.550696
internal_count=109 76 35
is_linear=0
shrinkage=0.998825


Tree=10
num_leaves=2
num_cat=0
split_feature=39
split_gain=2252.56
threshold=0.13922886696969858
decision_type=8
left_child=-1
right_child=-2
leaf_value=3.7464010776151753 -191.52445718513448
leaf_weight=0.20550181277033644 0.077761761241937039
leaf_count=46 56
internal_value=0
internal_weight=0
internal_count=102
is_linear=0
shrinkage=0.998825


end of trees

feature_importances:
num__amort_income_ratio=19
num__loan_amount=12
num__age=9
num__gross_income=8
cat__marital_status=7
bow__repo=5
cat__housing_status=5
num__n_children=5
num__employment_income=5
bow__suzuki=4
num__loan_downpayment=4
bow__barako=3
num__monthly_amortization=3
num__n_dependents_corrected=3
num__spouse_income=3
bow__150=2
bow__click=2
bow__tmx=2
cat__education=2
num__loan_term=2
num__loan_downpayment_ratio=2
bow__fi=1
bow__i=1
bow__yamaha=1
cat__spouse_education=1
num__n_dependents=1
num__business_income=1

parameters:
[boosting: gbdt]
[objective: binary]
[metric: binary_logloss]
[tree_learner: serial]
[device_type: cpu]
[data: ]
[valid: ]
[num_iterations: 11]
[learning_rate: 0.998825]
[num_leaves: 118]
[num_threads: 0]
[deterministic: 0]
[force_col_wise: 0]
[force_row_wise: 1]
[histogram_pool_size: -1]
[max_depth: -1]
[min_data_in_leaf: 4]
[min_sum_hessian_in_leaf: 0.0657603]
[bagging_fraction: 0.401026]
[pos_bagging_fraction: 1]
[neg_bagging_fraction: 1]
[bagging_freq: 2]
[bagging_seed: 3]
[feature_fraction: 0.625969]
[feature_fraction_bynode: 1]
[feature_fraction_seed: 2]
[extra_trees: 0]
[extra_seed: 6]
[early_stopping_round: 0]
[first_metric_only: 0]
[max_delta_step: 0]
[lambda_l1: 1.85779e-07]
[lambda_l2: 0.00477335]
[linear_lambda: 0]
[min_gain_to_split: 0]
[drop_rate: 0.1]
[max_drop: 50]
[skip_drop: 0.5]
[xgboost_dart_mode: 0]
[uniform_drop: 0]
[drop_seed: 4]
[top_rate: 0.2]
[other_rate: 0.1]
[min_data_per_group: 100]
[max_cat_threshold: 32]
[cat_l2: 10]
[cat_smooth: 10]
[max_cat_to_onehot: 4]
[top_k: 20]
[monotone_constraints: ]
[monotone_constraints_method: basic]
[monotone_penalty: 0]
[feature_contri: ]
[forcedsplits_filename: ]
[refit_decay_rate: 0.9]
[cegb_tradeoff: 1]
[cegb_penalty_split: 0]
[cegb_penalty_feature_lazy: ]
[cegb_penalty_feature_coupled: ]
[path_smooth: 0]
[interaction_constraints: ]
[verbosity: -1]
[saved_feature_importance_type: 0]
[linear_tree: 0]
[max_bin: 255]
[max_bin_by_feature: ]
[min_data_in_bin: 3]
[bin_construct_sample_cnt: 200000]
[data_random_seed: 1]
[is_enable_sparse: 1]
[enable_bundle: 1]
[use_missing: 1]
[zero_as_missing: 0]
[feature_pre_filter: 1]
[pre_partition: 0]
[two_round: 0]
[header: 0]
[label_column: ]
[weight_column: ]
[group_column: ]
[ignore_column: ]
[categorical_feature: ]
[forcedbins_filename: ]
[precise_float_parser: 0]
[parser_config_file: ]
[objective_seed: 5]
[num_class: 1]
[is_unbalance: 1]
[scale_pos_weight: 1]
[sigmoid: 1]
[boost_from_average: 1]
[reg_sqrt: 0]
[alpha: 0.9]
[fair_c: 1]
[poisson_max_delta_step: 0.7]
[tweedie_variance_power: 1.5]
[lambdarank_truncation_level: 30]
[lambdarank_norm: 1]
[label_gain: ]
[eval_at: ]
[multi_error_top_k: 1]
[auc_mu_weights: ]
[num_machines: 1]
[local_listen_port: 12400]
[time_out: 120]
[machine_list_filename: ]
[machines: ]
[gpu_platform_id: -1]
[gpu_device_id: -1]
[gpu_use_dp: 0]
[num_gpu: 1]

end of parameters

pandas_categorical:[]
